#include "typedefs.h"

int8 linear_weight_tile_buffer[10][64] = {
    {-0.14873876, -0.13701922, 0.21700312, 0.37846845, 1.1784691, 0.010648399, 0.5068969, -0.5325371,
     -0.8211274, -0.3528865, 0.720348, -0.2881708, 0.97990716, -0.24027166, -0.021994673, 0.17916122,
     -0.31629872, -1.3190316, 0.52612615, -1.6252236, 0.17437392, 0.8761168, -0.03563866, 0.3560184,
     -0.40876314, -0.53692293, -0.9870908, 0.4988564, -0.67278653, 0.005921812, -0.65982777, -0.6531638,
     0.80935997, -0.8316949, 0.59378, -0.3718825, 0.06612378, -0.14672235, -0.31341925, -0.67866683,
     0.18723632, 0.5706939, 0.117516644, 0.7098362, 0.49661234, -0.78893083, 0.25217348, 0.0054682535,
     -0.22267047, 0.39515743, -0.20730488, -0.65517753, -1.168655, -0.21898398, 0.8093371, -0.42649445,
     1.2044417, -0.38531688, -0.71563923, 0.67938906, 0.05628807, -0.44544682, -0.47736138, 0.64599425},
    {1.4352665, -0.73648673, 0.019416729, -1.1977619, 0.041194864, -0.6242835, -0.118729524, -0.6222214,
     0.5809011, 0.8127043, -0.21151017, 0.40263507, -0.9575044, 0.25926378, 0.46466005, 0.5191085,
     -0.4857233, -0.35834745, 0.22597614, 0.4255534, -0.4938875, 0.4922692, -0.62234944, 0.50499296,
     0.29309306, 0.038126603, -0.8048149, 0.79493225, -0.6314641, -0.13164411, -0.25042292, -1.0561006,
     -0.16814059, -0.1815548, -0.18499888, 0.39137164, -0.2833988, -0.6375957, 0.37680963, 0.8323728,
     -0.65830547, 0.72749203, 0.09785446, -0.3276479, -0.7255, 1.3083278, 1.2468189, -1.1285734,
     -0.9343692, -0.72233075, -1.0139694, -0.063924424, -1.396942, 1.0361375, -0.65627474, -0.5337771,
     0.25513208, 0.7607273, 1.0172144, 0.33641946, -0.54152507, 1.064332, -0.67308587, 0.58248174},
    {-0.5515738, 0.32080072, 1.0106491, 0.6488606, 0.33304888, 0.82528573, -0.3907433, -0.6657275,
     -0.686548, -0.63098353, -0.5935371, -0.54329497, -0.6208695, -0.013912344, -0.62223136, 1.0074431,
     -0.09098346, -0.101913884, 1.0954156, 0.3318866, 0.7872301, 0.027348518, 0.5045224, -0.09721615,
     -0.47253487, -0.5954788, 0.4029481, -0.35333738, -0.67317224, -0.10836537, 0.28379408, 0.38378662,
     -0.36167857, -0.7351337, -0.6828633, -0.82457614, 0.8099375, -0.25155863, 0.27053282, 0.18631524,
     -0.5023996, -0.28203, 0.7386993, -0.3907341, 0.58753556, 0.46000037, -0.7219229, -0.20001188,
     0.4503875, 0.71808344, 0.29949728, -0.5899065, 0.36262196, -0.33063293, 0.10704649, 0.578784,
     -0.48175827, 0.020708282, -0.0027544063, 0.54119986, -0.8547299, 0.18267997, 1.2277548, -0.6766421},
    {0.12255496, 0.41077375, -0.20330486, 0.5429831, -0.4068659, -0.5092118, 0.06736929, 0.7450859,
     0.612545, -0.5223155, -0.3963045, 0.09256143, 0.36363152, 0.21466596, -0.7280632, -0.28905025,
     0.5821552, 0.93464303, 0.28132743, 0.5931366, 0.3085923, 0.48491642, 0.42564425, -0.67387813,
     0.6333243, 0.41025794, -0.119460575, -0.6188062, -0.40549675, -0.20061027, 0.15240152, 0.3621943,
     0.6037164, -0.33378223, 0.412145, -0.263108, -0.8756453, -0.4356607, 0.106984094, -0.4934601,
     -0.14951773, -0.6072369, -0.2608544, -0.5136419, -0.47090635, -0.23413573, 0.8338183, 0.3337396,
     0.02042633, -0.21031247, -0.039486118, -0.039870955, 0.16703582, 0.21683988, -0.25352857, 0.39631835,
     -0.5341462, -0.036380198, -0.41202596, -0.41217473, 0.5230092, -0.19502272, -0.84247565, -0.47011822},
    {-0.42615375, -0.31070942, -0.89661944, -0.57130814, -0.5364027, 0.8340404, -0.6847158, -0.5143686,
     -0.28256354, -0.31249425, 0.22647254, -0.36318275, 0.35223714, 0.57642883, 0.25972083, -0.61723506,
     0.18159096, 0.148637, -0.15169913, 0.5130011, -0.06734959, -1.3157452, -0.07129264, 1.0592382,
     -0.7916341, 0.09382483, 0.4718037, -0.51546943, 0.4785353, -0.4347014, 0.97057754, 0.33269703,
     0.44952542, 0.9783902, -0.7623425, -0.31761774, 0.61892724, 0.042132296, -0.74941885, -0.2737633,
     1.4220039, -0.3708374, -0.57182604, -0.49825287, 0.24578325, 0.25950137, -0.549557, 0.07970774,
     -0.25062475, 0.45573065, -0.38860738, -0.5731941, -0.14738308, 1.0104921, -0.20229739, -0.8866043,
     -0.4341503, -0.5830253, -0.23207533, 0.17845874, 0.7287044, -0.43817818, 0.14349578, 0.29619604},
    {-0.44486246, -0.28269163, -0.36137208, -0.19944131, -0.582962, -0.31073937, 0.406819, 0.36796406,
     -0.022193719, 0.94359857, 0.5192212, -1.0379783, -0.34840846, 0.43311945, 0.1901746, -0.16247588,
     0.72643703, -0.28579274, -0.6409594, 0.24246013, -0.6269628, -0.48621842, 0.5877436, -0.19758123,
     -0.12217088, 0.6887933, 0.44462687, -0.25136882, 1.0467483, 0.5452363, -0.2451432, 0.2597561,
     -0.6222672, 0.34098297, 0.96839815, 0.43793178, -0.7706741, -0.35367674, -0.17581129, -0.15181558,
     -0.4419209, 0.021125007, 0.9113757, -0.3158693, -0.61270684, -0.416654, 0.17611627, -0.49929821,
     0.8873021, 0.059424598, 0.3052812, -0.15504806, 0.31424564, -0.3801348, 0.11852424, 0.55898637,
     0.015087235, 0.86794746, -0.5061729, -0.6757292, 0.20675467, -0.17970027, -0.14532144, -0.54041743},
    {-0.51800597, 0.35454148, 1.0515237, -0.072451994, 0.024095325, -0.61835617, 0.8049357, -0.29563373,
     -0.5676396, 0.5733991, -0.13779926, 1.0596895, -0.008670146, 0.41518226, -0.63916785, -0.74824214,
     -1.086426, 0.410732, -0.7540271, -0.53528744, -0.8658218, -0.31838325, 0.21379058, -0.117051326,
     -0.14995193, 0.72027224, 0.21565108, 0.31199354, 0.18064049, 0.42320758, 0.45838943, 0.78479576,
     -1.3148501, -0.8000454, -0.61981624, -0.42790943, -0.23572959, 1.3085798, 0.3673097, -0.41432485,
     0.5103429, -0.58473235, -1.0094956, -0.45313033, -0.4731638, 0.11202329, -0.72177416, -0.1976318,
     0.08020586, -1.1441993, 0.87088466, 0.46231732, -0.28016153, -0.62223905, -0.66893214, 0.7306048,
     0.30008918, -0.7068805, 0.39386284, 1.1335363, 0.005108715, -0.2867378, 0.5445859, 0.1358263},
    {-0.4574702, -0.8420329, 0.32994965, -0.9376858, 0.05598309, -0.4630437, -0.428, 0.84389234,
     -0.045399968, -0.2569151, 0.24527743, -0.08548256, -0.45077538, -1.4484175, 1.1256156, -0.66001225,
     0.10675661, 0.2689971, -0.7615094, -0.15351231, 0.75975204, -0.0043861256, -0.27607545, -1.0436115,
     -0.1898785, -0.64774877, 0.60969615, -0.7984896, 0.6064237, 1.1191264, 0.10550065, -1.4632161,
     -0.2686655, 0.6708574, -0.3961684, 0.018935954, 0.8901961, 0.36419058, -0.91580975, -0.17323412,
     0.24112394, 0.8913271, 0.0935569, 0.7060425, -0.24902374, 0.43498087, 0.23750934, 0.3787584,
     -0.24568336, 0.18808539, 0.630861, 1.1948748, 0.73820084, -0.2548589, -0.5030018, 0.16323121,
     -0.87186724, -0.81597054, -0.049185373, -0.7060763, 0.17495838, -0.75323004, -0.11046309, 0.754202},
    {0.80404335, 1.0563109, -0.6802973, -0.41914347, 0.17796633, 0.18388925, 0.75667757, -0.3161392,
     -0.122078635, 0.48904127, -0.7218784, 1.1378882, 0.05413935, -0.45252016, 0.31146127, 0.059116468,
     -0.7566228, -0.28799987, -0.23427826, -0.8821428, 0.40549406, -0.7053615, -1.2741545, 0.3467177,
     1.0712572, -0.3922559, 0.1654924, 0.5502643, -0.28956622, -0.62154365, -1.1458669, -0.26330587,
     0.6398563, -0.07289285, 0.020678254, 0.774866, 0.03983411, -0.9609443, 1.1389099, 1.4770322,
     0.15530881, -0.9003237, -0.5192006, 0.81285685, 1.1241465, -0.38662848, -0.39623854, 0.71141976,
     -0.66061896, -0.9068534, -0.36048254, 0.43453136, -0.10888956, -0.2643194, 1.2233661, -1.0624309,
     0.32022375, 0.16504703, -0.56323916, -0.015838247, -1.5704561, -0.35132954, 0.42213085, 0.59078944},
    {0.47093526, -0.7878021, -0.4310145, 0.220118, -0.59941673, -0.02489149, -0.72559536, -0.4322284,
     0.61680114, -0.21881564, -0.27239323, 0.6999225, -0.2043925, -0.5688716, 0.20577163, 0.23486479,
     -0.7829475, -0.6228429, -0.19962113, -0.2560268, -0.83876795, 0.53276855, -0.8996851, 0.6335732,
     -0.3135464, -0.8733263, -0.8593244, 1.0977697, -0.65868455, -1.2057881, -0.4378018, 0.52881944,
     0.17729035, 0.65138865, -0.72227776, 1.0428658, 0.27177033, 1.0774993, 0.31242785, -0.02741039,
     -0.31796867, 0.8814465, -0.45813948, 0.83791864, -0.5321969, -0.3811948, 0.02101087, 0.78942984,
     0.118876025, -0.4470204, -0.31375906, 0.2604529, 0.77974623, -0.5265992, -0.9014706, -0.7232757,
     1.0729083, 0.9927491, 1.4485569, -0.6634956, -0.6641826, 0.7577589, -0.34741175, -0.64062595}
};

